{
  "features_info":
    {
      "float_features":
        [
          {
            "borders":
              [
                5.5998187065124512,
                5.6424851417541504,
                5.8675012588500977,
                8.6139612197875977,
                9.5344820022583008,
                9.5769577026367188,
                9.6103897094726563,
                11.199850082397461,
                11.561061859130859,
                11.902093887329102,
                12.01555347442627,
                12.078153610229492,
                12.113458633422852,
                12.126815795898438,
                12.133733749389648,
                12.147638320922852,
                12.391641616821289,
                12.412290573120117,
                12.430668830871582,
                12.448918342590332,
                12.528440475463867,
                12.548019409179688,
                12.565118789672852,
                12.598122596740723,
                12.681892395019531,
                12.738591194152832,
                12.746167182922363,
                12.882474899291992,
                12.915271759033203,
                12.943849563598633,
                13.062112808227539,
                13.073114395141602,
                13.146990776062012,
                13.870720863342285,
                14.696090698242188
              ],
            "feature_id":"MaxAbsEStateIndex",
            "feature_index":0,
            "flat_feature_index":0,
            "has_nans":false,
            "nan_value_treatment":"AsIs"
          },
          {
            "borders":
              [
                0.00068737869150936604,
                0.0013087468687444925,
                0.0021077424753457308,
                0.0023510330356657505,
                0.0030598270241171122,
                0.0040903547778725624,
                0.0050860773772001266,
                0.0069105350412428379,
                0.010141506791114807,
                0.011090990155935287,
                0.016300216317176819,
                0.017797414213418961,
                0.019040815532207489,
                0.02053600549697876,
                0.02152162604033947,
                0.022061731666326523,
                0.022465962916612625,
                0.023824762552976608,
                0.025486312806606293,
                0.027684297412633896,
                0.03060203418135643,
                0.031939700245857239,
                0.037412367761135101,
                0.040369424968957901,
                0.041133962571620941,
                0.043685756623744965,
                0.05765116959810257,
                0.06329403817653656,
                0.066298037767410278,
                0.07128588855266571,
                0.073179818689823151,
                0.082041114568710327,
                0.08435378223657608,
                0.088085070252418518,
                0.095616325736045837,
                0.099090456962585449,
                0.10530704259872437,
                0.1076081320643425,
                0.11088361591100693,
                0.11482775956392288,
                0.11665262281894684,
                0.12983240187168121,
                0.13656608760356903,
                0.13919812440872192,
                0.14264112710952759,
                0.15284724533557892,
                0.15816716849803925,
                0.16139040887355804,
                0.17921821773052216,
                0.18204201757907867,
                0.18602785468101501,
                0.19181852042675018,
                0.21817338466644287,
                0.22359934449195862,
                0.22975772619247437,
                0.23871758580207825,
                0.2557394802570343,
                0.26435723900794983,
                0.26937013864517212,
                0.2806667685508728,
                0.32868266105651855,
                0.4471811056137085,
                0.48915493488311768
              ],
            "feature_id":"MinAbsEStateIndex",
            "feature_index":1,
            "flat_feature_index":1,
            "has_nans":false,
            "nan_value_treatment":"AsIs"
          },
          {
            "borders":
              [
                -4.420508861541748,
                -3.2965865135192871,
                -0.85824811458587646,
                -0.76155209541320801,
                -0.73703360557556152,
                -0.58999133110046387,
                -0.51903057098388672,
                -0.4781811535358429,
                -0.47579622268676758,
                -0.46283653378486633,
                -0.45633238554000854,
                -0.43671804666519165,
                -0.41198831796646118,
                -0.40220698714256287,
                -0.39687579870223999,
                -0.39352554082870483,
                -0.38463568687438965,
                -0.38097190856933594,
                -0.37173071503639221,
                -0.36810669302940369,
                -0.34948447346687317,
                -0.34388828277587891,
                -0.34082973003387451,
                -0.32595670223236084,
                -0.32017403841018677,
                -0.31679618358612061,
                -0.26680171489715576,
                -0.26046419143676758,
                -0.23533499240875244,
                -0.21141828596591949,
                -0.20279714465141296,
                -0.17734089493751526,
                -0.16245283186435699,
                -0.14421400427818298,
                -0.13690377771854401,
                -0.11114774644374847,
                -0.096608981490135193,
                -0.079052403569221497,
                -0.049917746335268021,
                -0.025217073038220406,
                -0.0036700069904327393,
                0.0026061744429171085,
                0.017097977921366692,
                0.16147840023040771,
                0.77511924505233765
              ],
            "feature_id":"MinEStateIndex",
            "feature_index":2,
            "flat_feature_index":2,
            "has_nans":false,
            "nan_value_treatment":"AsIs"
          },
          {
            "borders":
              [
                0.098784536123275757,
                0.10864931344985962,
                0.10988712310791016,
                0.11647368967533112,
                0.14747923612594604,
                0.15054646134376526,
                0.15748131275177002,
                0.27207940816879272,
                0.34047126770019531,
                0.38529419898986816,
                0.41721665859222412,
                0.43683061003684998,
                0.47585707902908325,
                0.48968029022216797,
                0.51168036460876465,
                0.53296899795532227,
                0.53801333904266357,
                0.53925216197967529,
                0.54346293210983276,
                0.59816145896911621,
                0.59846580028533936,
                0.60710990428924561,
                0.6103665828704834,
                0.61275869607925415,
                0.62445998191833496,
                0.63217949867248535,
                0.63783144950866699,
                0.64173197746276855,
                0.64437389373779297,
                0.6480061411857605,
                0.65619027614593506,
                0.66291379928588867,
                0.6654585599899292,
                0.68061447143554688,
                0.69157356023788452,
                0.70588874816894531,
                0.74882680177688599,
                0.75135505199432373,
                0.75677776336669922,
                0.77611756324768066,
                0.78957289457321167,
                0.7924046516418457,
                0.83552563190460205,
                0.87803709506988525
              ],
            "feature_id":"qed",
            "feature_index":3,
            "flat_feature_index":3,
            "has_nans":false,
            "nan_value_treatment":"AsIs"
          },
          {
            "borders":
              [
                10.244999885559082,
                10.29503059387207,
                10.354999542236328,
                10.390518188476563,
                10.410428047180176,
                10.430952072143555,
                10.471405029296875,
                10.482856750488281,
                10.514474868774414,
                10.64142894744873,
                10.867544174194336,
                10.924037933349609,
                11.015625,
                11.112630844116211,
                11.215384483337402,
                11.364765167236328,
                12.461647033691406,
                12.933259010314941,
                13.494186401367188,
                13.547727584838867,
                13.552778244018555,
                13.577935218811035,
                15.642856597900391,
                16.6875,
                18.264244079589844,
                18.926536560058594,
                21.489999771118164
              ],
            "feature_id":"SPS",
            "feature_index":4,
            "flat_feature_index":4,
            "has_nans":false,
            "nan_value_treatment":"AsIs"
          },
          {
            "borders":
              [
                211.739990234375,
                243.76300048828125,
                259.73300170898438,
                268.52398681640625,
                273.31549072265625,
                279.21450805664063,
                283.03250122070313,
                289.2135009765625,
                299.87149047851563,
                311.572509765625,
                319.8809814453125,
                322.85052490234375,
                331.4224853515625,
                336.24349975585938,
                337.35699462890625,
                346.60751342773438,
                351.38201904296875,
                354.39752197265625,
                355.31649780273438,
                355.447021484375,
                357.01199340820313,
                374.45999145507813,
                407.48849487304688,
                411.58447265625,
                416.70849609375,
                432.72198486328125,
                437.03448486328125,
                466.56649780273438,
                544.261474609375,
                597.89801025390625,
                637.4730224609375
              ],
            "feature_id":"MolWt",
            "feature_index":5,
            "flat_feature_index":5,
            "has_nans":false,
            "nan_value_treatment":"AsIs"
          },
          {
            "borders":
              [
                0.09987272322177887,
                0.11651048064231873,
                0.15706697106361389,
                0.16553884744644165,
                0.19807207584381104,
                0.20633971691131592,
                0.20644098520278931,
                0.20708230137825012,
                0.22007212042808533,
                0.22659653425216675,
                0.22841763496398926,
                0.22843097150325775,
                0.22949141263961792,
                0.23102855682373047,
                0.23467728495597839,
                0.23529425263404846,
                0.25742539763450623,
                0.2580828070640564,
                0.26969531178474426,
                0.27010655403137207,
                0.27397102117538452,
                0.32435870170593262,
                0.32435876131057739,
                0.32436007261276245,
                0.32440084218978882,
                0.3273540735244751,
                0.32735568284988403,
                0.33716991543769836,
                0.41595995426177979
              ],
            "feature_id":"MaxPartialCharge",
            "feature_index":6,
            "flat_feature_index":6,
            "has_nans":false,
            "nan_value_treatment":"AsIs"
          },
          {
            "borders":
              [
                -0.50796526670455933,
                -0.50794136524200439,
                -0.50794017314910889,
                -0.50785362720489502,
                -0.50764131546020508,
                -0.50732207298278809,
                -0.50714647769927979,
                -0.50696158409118652,
                -0.50563371181488037,
                -0.49898797273635864,
                -0.49676799774169922,
                -0.49674445390701294,
                -0.49668699502944946,
                -0.49668693542480469,
                -0.4940757155418396,
                -0.46711486577987671,
                -0.38297772407531738,
                -0.38233128190040588,
                -0.38230419158935547,
                -0.37822115421295166,
                -0.37373840808868408,
                -0.36966270208358765,
                -0.35824361443519592,
                -0.35421854257583618,
                -0.35421818494796753,
                -0.35421684384346008,
                -0.35394054651260376,
                -0.35277241468429565,
                -0.34901711344718933,
                -0.34661853313446045,
                -0.32404759526252747,
                -0.32136505842208862,
                -0.31651902198791504,
                -0.31486126780509949,
                -0.31286770105361938,
                -0.30712985992431641,
                -0.29037123918533325,
                -0.26129290461540222
              ],
            "feature_id":"MinPartialCharge",
            "feature_index":7,
            "flat_feature_index":7,
            "has_nans":false,
            "nan_value_treatment":"AsIs"
          },
          {
            "borders":
              [
                0.29736414551734924,
                0.31486126780509949,
                0.31651902198791504,
                0.31792449951171875,
                0.32136505842208862,
                0.33165249228477478,
                0.34755444526672363,
                0.35118269920349121,
                0.35421815514564514,
                0.36688521504402161,
                0.36777406930923462,
                0.36850032210350037,
                0.36928790807723999,
                0.39147967100143433,
                0.39746534824371338,
                0.41592121124267578,
                0.41593289375305176,
                0.49407374858856201,
                0.49668693542480469,
                0.49668699502944946,
                0.49898797273635864,
                0.50603437423706055,
                0.50775003433227539,
                0.50794017314910889,
                0.50796526670455933,
                0.61867940425872803
              ],
            "feature_id":"MaxAbsPartialCharge",
            "feature_index":8,
            "flat_feature_index":8,
            "has_nans":false,
            "nan_value_treatment":"AsIs"
          },
          {
            "borders":
              [
                0.09987272322177887,
                0.15706697106361389,
                0.20644098520278931,
                0.22075685858726501,
                0.22841763496398926,
                0.22956934571266174,
                0.23529420793056488,
                0.27583855390548706,
                0.28986513614654541,
                0.29649335145950317,
                0.32435870170593262,
                0.32440131902694702,
                0.32444429397583008,
                0.32943037152290344,
                0.33941447734832764,
                0.33944714069366455,
                0.36034864187240601,
                0.41239601373672485
              ],
            "feature_id":"MinAbsPartialCharge",
            "feature_index":9,
            "flat_feature_index":9,
            "has_nans":false,
            "nan_value_treatment":"AsIs"
          },
          {
            "borders":
              [
                0.59169214963912964,
                0.85092592239379883,
                0.93218392133712769,
                0.94440150260925293,
                0.95993590354919434,
                0.96720427274703979,
                0.98979592323303223,
                1.0327956676483154,
                1.0635080337524414,
                1.0701971054077148,
                1.0845239162445068,
                1.0875959396362305,
                1.0895721912384033,
                1.0923295021057129,
                1.1012821197509766,
                1.1043556928634644,
                1.1165158748626709,
                1.1270160675048828,
                1.1310068368911743,
                1.1342341899871826,
                1.1371473073959351,
                1.1384098529815674,
                1.1476035118103027,
                1.1490740776062012,
                1.1526806354522705,
                1.1589473485946655,
                1.1617262363433838,
                1.1751918792724609,
                1.1967742443084717,
                1.2025641202926636,
                1.2076148986816406,
                1.2094298601150513,
                1.2180706262588501,
                1.2204861640930176,
                1.2296702861785889,
                1.2320513725280762,
                1.2343137264251709,
                1.2366946935653687,
                1.2540322542190552,
                1.2620136737823486,
                1.2679486274719238,
                1.2709789276123047,
                1.2788889408111572,
                1.2806249856948853,
                1.2880184650421143,
                1.2939814329147339,
                1.3021738529205322,
                1.3169856071472168,
                1.3279570341110229,
                1.3535714149475098,
                1.3879599571228027,
                1.4104278087615967,
                1.5278637409210205
              ],
            "feature_id":"FpDensityMorgan1",
            "feature_index":10,
            "flat_feature_index":10,
            "has_nans":false,
            "nan_value_treatment":"AsIs"
          },
          {
            "borders":
              [
                1.5250626802444458,
                1.6866071224212646,
                1.7459677457809448,
                1.7763888835906982,
                1.7923851013183594,
                1.8309524059295654,
                1.8393548727035522,
                1.8523964881896973,
                1.8615901470184326,
                1.8733973503112793,
                1.8793939352035522,
                1.8851648569107056,
                1.9104278087615967,
                1.9136645793914795,
                1.9194594621658325,
                1.9245014190673828,
                1.9436507225036621,
                1.9534631967544556,
                1.9555336236953735,
                1.9574275016784668,
                1.9607691764831543,
                1.9622507095336914,
                1.9660919904708862,
                1.9682459831237793,
                1.9701426029205322,
                1.986842155456543,
                2.0147058963775635,
                2.0363757610321045,
                2.0392308235168457,
                2.0408334732055664,
                2.0425724983215332,
                2.046536922454834,
                2.0655913352966309,
                2.0784616470336914,
                2.0816664695739746,
                2.0889327526092529,
                2.0960061550140381,
                2.1165158748626709,
                2.1188235282897949,
                2.1333992481231689,
                2.1371474266052246,
                2.1558704376220703,
                2.1589474678039551,
                2.1633334159851074,
                2.1702899932861328,
                2.1835017204284668,
                2.1961538791656494,
                2.2247476577758789,
                2.2565789222717285
              ],
            "feature_id":"FpDensityMorgan2",
            "feature_index":11,
            "flat_feature_index":11,
            "has_nans":false,
            "nan_value_treatment":"AsIs"
          },
          {
            "borders":
              [
                14.991155624389648,
                16.14898681640625,
                16.149877548217773,
                16.152877807617188,
                16.162647247314453,
                16.162662506103516,
                16.169422149658203,
                16.251079559326172,
                16.252285003662109,
                16.252370834350586,
                16.255617141723633,
                16.281780242919922,
                16.466476440429688,
                16.597766876220703,
                16.696708679199219,
                32.133575439453125,
                32.166614532470703,
                32.166641235351563,
                35.495689392089844,
                35.496772766113281,
                35.498260498046875,
                35.498977661132813,
                103.41632080078125
              ],
            "feature_id":"BCUT2D_MWHI",
            "feature_index":12,
            "flat_feature_index":12,
            "has_nans":false,
            "nan_value_treatment":"AsIs"
          },
          {
            "borders":
              [
                9.7978591918945313,
                9.8613090515136719,
                9.9561882019042969,
                9.9561920166015625,
                9.9561996459960938,
                9.9562149047851563,
                10.014307022094727,
                10.030207633972168,
                10.031479835510254,
                10.031974792480469,
                10.040500640869141,
                10.053006172180176,
                10.060329437255859,
                10.063104629516602,
                10.065943717956543,
                10.085676193237305,
                10.08918571472168,
                10.093332290649414,
                10.100030899047852,
                10.121722221374512,
                10.143414497375488,
                10.146333694458008,
                10.19499397277832,
                10.198633193969727,
                10.198635101318359,
                10.233059883117676,
                10.346628189086914
              ],
            "feature_id":"BCUT2D_MWLOW",
            "feature_index":13,
            "flat_feature_index":13,
            "has_nans":false,
            "nan_value_treatment":"AsIs"
          },
          {
            "borders":
              [
                2.0695338249206543,
                2.0806844234466553,
                2.0875618457794189,
                2.1045851707458496,
                2.1095089912414551,
                2.1134953498840332,
                2.1285607814788818,
                2.1367306709289551,
                2.1427233219146729,
                2.1560285091400146,
                2.1572990417480469,
                2.1688416004180908,
                2.1745479106903076,
                2.1799578666687012,
                2.1811933517456055,
                2.1815943717956543,
                2.1883878707885742,
                2.1929247379302979,
                2.2058806419372559,
                2.2139616012573242,
                2.2175812721252441,
                2.2225370407104492,
                2.225597620010376,
                2.2386288642883301,
                2.2415611743927002,
                2.2425827980041504,
                2.2473664283752441,
                2.2530655860900879,
                2.2606186866760254,
                2.2898209095001221,
                2.2978072166442871,
                2.321235179901123,
                2.3373513221740723,
                2.3916988372802734,
                2.3917903900146484,
                2.4965081214904785
              ],
            "feature_id":"BCUT2D_CHGHI",
            "feature_index":14,
            "flat_feature_index":14,
            "has_nans":false,
            "nan_value_treatment":"AsIs"
          },
          {
            "borders":
              [
                -2.3554592132568359,
                -2.3369998931884766,
                -2.3009986877441406,
                -2.3009171485900879,
                -2.2788443565368652,
                -2.2654469013214111,
                -2.2119302749633789,
                -2.2020378112792969,
                -2.1948814392089844,
                -2.1806578636169434,
                -2.1515092849731445,
                -2.1488430500030518,
                -2.1474466323852539,
                -2.1468358039855957,
                -2.1431941986083984,
                -2.1149368286132813,
                -2.1129763126373291,
                -2.1110091209411621,
                -2.0876874923706055,
                -2.0858659744262695,
                -2.0842022895812988,
                -2.0794839859008789,
                -2.0694754123687744,
                -2.0667896270751953,
                -2.0642883777618408,
                -2.0588059425354004,
                -2.0541222095489502,
                -2.0513529777526855,
                -2.0496554374694824,
                -2.0386116504669189,
                -2.0314245223999023,
                -2.0202896595001221,
                -2.0148072242736816,
                -2.008697509765625,
                -2.0059480667114258,
                -1.9967141151428223,
                -1.9926083087921143,
                -1.9837930202484131,
                -1.9771453142166138,
                -1.9625016450881958
              ],
            "feature_id":"BCUT2D_CHGLO",
            "feature_index":15,
            "flat_feature_index":15,
            "has_nans":false,
            "nan_value_treatment":"AsIs"
          },
          {
            "borders":
              [
                2.2001433372497559,
                2.2028036117553711,
                2.2047367095947266,
                2.2291233539581299,
                2.2450613975524902,
                2.2535820007324219,
                2.2605524063110352,
                2.2790493965148926,
                2.2809910774230957,
                2.2840027809143066,
                2.2850439548492432,
                2.288332462310791,
                2.2973995208740234,
                2.3069791793823242,
                2.3099305629730225,
                2.3121659755706787,
                2.3140671253204346,
                2.3275837898254395,
                2.3294310569763184,
                2.3357963562011719,
                2.3403544425964355,
                2.3465065956115723,
                2.3497219085693359,
                2.3552403450012207,
                2.3569450378417969,
                2.3594162464141846,
                2.3641300201416016,
                2.3711414337158203,
                2.3800930976867676,
                2.3867301940917969,
                2.3881978988647461,
                2.3894491195678711,
                2.3896870613098145,
                2.3899633884429932,
                2.3904337882995605,
                2.3941550254821777,
                2.3971900939941406,
                2.3999125957489014,
                2.40511155128479,
                2.4075279235839844,
                2.409569263458252,
                2.4295721054077148,
                2.4395203590393066
              ],
            "feature_id":"BCUT2D_LOGPHI",
            "feature_index":16,
            "flat_feature_index":16,
            "has_nans":false,
            "nan_value_treatment":"AsIs"
          },
          {
            "borders":
              [
                -2.4593057632446289,
                -2.398526668548584,
                -2.3860540390014648,
                -2.3837890625,
                -2.3808958530426025,
                -2.3737523555755615,
                -2.3514471054077148,
                -2.3200905323028564,
                -2.3146018981933594,
                -2.2694344520568848,
                -2.2580523490905762,
                -2.254150390625,
                -2.2522382736206055,
                -2.2161769866943359,
                -2.1369304656982422,
                -2.1279697418212891,
                -2.1236996650695801,
                -2.1228568553924561,
                -2.1203935146331787,
                -2.1198945045471191,
                -2.1196942329406738,
                -2.1163108348846436,
                -2.1061387062072754,
                -2.043694019317627,
                -2.0235080718994141,
                -2.0199882984161377,
                -2.0169644355773926,
                -1.9436333179473877,
                -1.941062331199646,
                -1.8908495903015137,
                -1.8402552604675293,
                -1.8131241798400879,
                -1.7762885093688965
              ],
            "feature_id":"BCUT2D_LOGPLOW",
            "feature_index":17,
            "flat_feature_index":17,
            "has_nans":false,
            "nan_value_treatment":"AsIs"
          },
          {
            "borders":
              [
                5.7382049560546875,
                5.8400440216064453,
                5.8415517807006836,
                5.8504495620727539,
                5.8581748008728027,
                5.8666443824768066,
                5.8691000938415527,
                5.8888015747070313,
                5.9214906692504883,
                5.9423632621765137,
                6.0446176528930664,
                6.0448431968688965,
                6.0449190139770508,
                6.0451211929321289,
                6.0454816818237305,
                6.0471611022949219,
                6.0500612258911133,
                6.0518083572387695,
                6.054417610168457,
                6.3137931823730469,
                6.3518562316894531,
                6.5111026763916016,
                7.0958280563354492,
                7.1308689117431641,
                7.2039380073547363,
                7.7324857711791992,
                7.9030470848083496,
                7.9792943000793457,
                7.9935426712036133,
                7.993556022644043,
                8.2086086273193359,
                9.1030044555664063,
                9.1030178070068359,
                9.1030216217041016,
                9.1030235290527344,
                9.1030254364013672,
                9.1036643981933594,
                9.1162166595458984,
                14.111917495727539,
                14.111965179443359
              ],
            "feature_id":"BCUT2D_MRHI",
            "feature_index":18,
            "flat_feature_index":18,
            "has_nans":false,
            "nan_value_treatment":"AsIs"
          },
          {
            "borders":
              [
                -0.38442030549049377,
                -0.14085745811462402,
                -0.14040344953536987,
                -0.1370566189289093,
                -0.1362001895904541,
                -0.12135787308216095,
                -0.11514130234718323,
                -0.1150849312543869,
                -0.11506471037864685,
                -0.11506420373916626,
                -0.11506357789039612,
                -0.11506333202123642,
                -0.11373024433851242,
                -0.11371598392724991,
                0.015454566106200218,
                0.02071288600564003,
                0.052446737885475159,
                0.067186996340751648,
                0.0671873539686203,
                0.067187801003456116,
                0.076634392142295837,
                0.10379207134246826,
                0.17908507585525513,
                0.25555014610290527,
                0.41520994901657104,
                0.45998913049697876,
                0.47484639286994934,
                0.47520160675048828,
                0.47595018148422241,
                0.95612657070159912,
                1.173957347869873,
                1.1911107301712036,
                1.2788370847702026
              ],
            "feature_id":"BCUT2D_MRLOW",
            "feature_index":19,
            "flat_feature_index":19,
            "has_nans":false,
            "nan_value_treatment":"AsIs"
          },
          {
            "borders":
              [
                2.4853219985961914,
                2.6331827640533447,
                2.6942284107208252,
                2.7027411460876465,
                2.7031869888305664,
                2.7137596607208252,
                2.7192237377166748,
                2.7297530174255371,
                2.7594738006591797,
                2.7752995491027832,
                2.781832218170166,
                2.7920558452606201,
                2.8005967140197754,
                2.8420741558074951,
                2.8872339725494385,
                2.8900799751281738,
                2.8933138847351074,
                2.9013700485229492,
                2.9101781845092773,
                2.9704463481903076,
                2.9838559627532959,
                2.988300085067749,
                3.0221548080444336,
                3.0294461250305176,
                3.0315260887145996,
                3.0379328727722168,
                3.0489675998687744,
                3.0515587329864502,
                3.068333625793457,
                3.0815300941467285,
                3.0858688354492188,
                3.0938224792480469,
                3.1050624847412109,
                3.1395034790039063,
                3.1720623970031738,
                3.1846809387207031,
                3.1924428939819336,
                3.2023634910583496,
                3.2895994186401367,
                3.3191077709197998,
                3.3393616676330566,
                3.3542361259460449,
                3.4305410385131836,
                3.5055990219116211
              ],
            "feature_id":"AvgIpc",
            "feature_index":20,
            "flat_feature_index":20,
            "has_nans":false,
            "nan_value_treatment":"AsIs"
          },
          {
            "borders":
              [
                1.3537464141845703,
                1.409782886505127,
                1.4324774742126465,
                1.4917912483215332,
                1.547711968421936,
                1.5723676681518555,
                1.5812058448791504,
                1.6790388822555542,
                1.6933356523513794,
                1.7879934310913086,
                1.8121507167816162,
                1.8208736181259155,
                1.845738410949707,
                1.8568496704101563,
                1.8705040216445923,
                1.8894298076629639,
                1.9129912853240967,
                1.9401801824569702,
                1.9574724435806274,
                1.9642727375030518,
                1.971743106842041,
                1.9767628908157349,
                1.9847428798675537,
                1.9977879524230957,
                2.015324592590332,
                2.0191249847412109,
                2.0487015247344971,
                2.0602879524230957,
                2.0834798812866211,
                2.0872383117675781,
                2.0978436470031738,
                2.1118111610412598,
                2.1256406307220459,
                2.1376338005065918,
                2.1437478065490723,
                2.2848019599914551,
                2.3080630302429199,
                2.3181056976318359,
                2.3490407466888428,
                2.3913097381591797
              ],
            "feature_id":"BalabanJ",
            "feature_index":21,
            "flat_feature_index":21,
            "has_nans":false,
            "nan_value_treatment":"AsIs"
          },
          {
            "borders":
              [
                597.6014404296875,
                608.375244140625,
                678.8409423828125,
                737.6134033203125,
                802.2662353515625,
                819.0885009765625,
                833.4832763671875,
                842.6400146484375,
                850.486328125,
                850.94677734375,
                867.7274169921875,
                880.881591796875,
                887.556640625,
                898.60955810546875,
                934.1058349609375,
                976.52587890625,
                987.86602783203125,
                995.70703125,
                1009.9669189453125,
                1050.0782470703125,
                1053.811279296875,
                1083.720458984375,
                1101.26025390625,
                1106.8218994140625,
                1119.2935791015625,
                1129.04296875,
                1185.84912109375
              ],
            "feature_id":"BertzCT",
            "feature_index":22,
            "flat_feature_index":22,
            "has_nans":false,
            "nan_value_treatment":"AsIs"
          },
          {
            "borders":
              [
                -5.4000000953674316,
                -4.2750000953674316,
                -4.1700000762939453,
                -3.6050000190734863,
                -3.3449997901916504,
                -3.2849998474121094,
                -3.2750000953674316,
                -3.2249999046325684,
                -3.1449999809265137,
                -2.9650001525878906,
                -2.945000171661377,
                -2.934999942779541,
                -2.9250001907348633,
                -2.9000000953674316,
                -2.8850002288818359,
                -2.875,
                -2.8649997711181641,
                -2.8350000381469727,
                -2.8249998092651367,
                -2.7849998474121094,
                -2.6350002288818359,
                -2.6149997711181641,
                -2.4250001907348633,
                -2.4050002098083496,
                -2.315000057220459,
                -2.2950000762939453,
                -2.2649998664855957,
                -2.1350002288818359,
                -2.1050000190734863,
                -2.059999942779541,
                -1.9800000190734863,
                -1.815000057220459,
                -1.3350000381469727,
                -1.2849999666213989,
                -1.2000000476837158
              ],
            "feature_id":"HallKierAlpha",
            "feature_index":23,
            "flat_feature_index":23,
            "has_nans":false,
            "nan_value_treatment":"AsIs"
          },
          {
            "borders":
              [
                14146.05078125,
                20054.330078125,
                26991.2734375,
                59715.3828125,
                67447.5625,
                79604.953125,
                101188.640625,
                116672.21875,
                118298.2890625,
                143841.25,
                147340.625,
                158251.84375,
                202625.09375,
                209238.75,
                236319.078125,
                259913.96875,
                349141.21875,
                371173.15625,
                428329.0625,
                599923.375,
                641573.75,
                670852,
                786469.6875,
                875028.3125,
                1039774.875,
                1164163.5,
                2469769.25,
                4231637,
                6681147,
                9916340,
                14689564,
                24430968,
                30007940
              ],
            "feature_id":"Ipc",
            "feature_index":24,
            "flat_feature_index":24,
            "has_nans":false,
            "nan_value_treatment":"AsIs"
          },
          {
            "borders":
              [
                2.2835497856140137,
                4.9419441223144531,
                5.5252280235290527,
                7.6136717796325684,
                10.010805130004883,
                10.528446197509766,
                10.884050369262695,
                11.104957580566406,
                11.313396453857422,
                14.359123229980469,
                14.625478744506836,
                14.940828323364258,
                14.971988677978516,
                15.014022827148438,
                15.04417896270752,
                15.147487640380859,
                15.895597457885742,
                15.992401123046875,
                19.942268371582031,
                22.666301727294922
              ],
            "feature_id":"PEOE_VSA1",
            "feature_index":25,
            "flat_feature_index":25,
            "has_nans":false,
            "nan_value_treatment":"AsIs"
          },
          {
            "borders":
              [
                2.4385735988616943,
                4.9423856735229492,
                5.7305984497070313,
                5.7548794746398926,
                5.7717461585998535,
                5.8211336135864258,
                5.9746122360229492,
                10.558034896850586,
                10.825164794921875,
                11.178550720214844,
                11.431320190429688,
                11.444995880126953,
                11.453874588012695,
                11.48203182220459,
                11.501815795898438,
                11.507877349853516,
                11.511469841003418,
                11.52034854888916,
                11.530831336975098,
                11.567052841186523,
                11.701137542724609,
                11.781434059143066,
                12.148453712463379,
                12.604930877685547,
                16.289524078369141,
                22.655975341796875,
                22.832441329956055,
                22.878765106201172,
                24.147304534912109,
                28.223148345947266,
                28.317825317382813,
                31.267698287963867
              ],
            "feature_id":"PEOE_VSA10",
            "feature_index":26,
            "flat_feature_index":26,
            "has_nans":false,
            "nan_value_treatment":"AsIs"
          },
          {
            "borders":
              [
                2.5038118362426758,
                5.737248420715332,
                5.8024873733520508,
                5.8211336135864258,
                6.0781993865966797,
                6.2880935668945313,
                11.48203182220459,
                11.532756805419922,
                11.572742462158203,
                23.031902313232422,
                23.069221496582031,
                23.086086273193359,
                25.790122985839844,
                28.757404327392578
              ],
            "feature_id":"PEOE_VSA11",
            "feature_index":27,
            "flat_feature_index":27,
            "has_nans":false,
            "nan_value_treatment":"AsIs"
          },
          {
            "borders":
              [
                2.5657792091369629,
                5.1439971923828125,
                5.3561887741088867,
                5.7004413604736328,
                5.7363309860229492,
                5.9539470672607422,
                6.3762483596801758,
                10.590462684631348,
                10.96583366394043,
                11.806131362915039,
                11.861126899719238,
                11.881706237792969,
                18.50688362121582,
                25.331981658935547
              ],
            "feature_id":"PEOE_VSA12",
            "feature_index":28,
            "flat_feature_index":28,
            "has_nans":false,
            "nan_value_treatment":"AsIs"
          },
          {
            "borders":
              [
                2.7796335220336914,
                7.965235710144043,
                11.645766258239746,
                11.943752288818359,
                14.049224853515625
              ],
            "feature_id":"PEOE_VSA13",
            "feature_index":29,
            "flat_feature_index":29,
            "has_nans":false,
            "nan_value_treatment":"AsIs"
          },
          {
            "borders":
              [
                12.07301139831543,
                54.369186401367188
              ],
            "feature_id":"PEOE_VSA14",
            "feature_index":30,
            "flat_feature_index":30,
            "has_nans":false,
            "nan_value_treatment":"AsIs"
          },
          {
            "borders":
              [
                2.3610475063323975,
                4.8472232818603516,
                4.9419441223144531,
                9.6274280548095703,
                9.6801137924194336,
                9.736480712890625,
                10.112821578979492,
                12.257369995117188,
                14.148998260498047,
                14.90735912322998,
                15.055085182189941,
                19.849620819091797
              ],
            "feature_id":"PEOE_VSA2",
            "feature_index":31,
            "flat_feature_index":31,
            "has_nans":false,
            "nan_value_treatment":"AsIs"
          },
          {
            "borders":
              [
                2.1952075958251953,
                4.6216011047363281,
                8.5993137359619141,
                9.5797290802001953,
                9.7951955795288086,
                11.82933235168457,
                14.235635757446289,
                14.465712547302246,
                14.608556747436523,
                14.646909713745117,
                19.393747329711914,
                24.528388977050781,
                26.554548263549805,
                28.452972412109375
              ],
            "feature_id":"PEOE_VSA3",
            "feature_index":32,
            "flat_feature_index":32,
            "has_nans":false,
            "nan_value_treatment":"AsIs"
          },
          {
            "borders":
              [
                2.1526079177856445,
                4.8571929931640625,
                5.0455436706542969,
                5.3709940910339355,
                10.025308609008789,
                10.140012741088867,
                14.6102294921875,
                15.052909851074219,
                16.749887466430664,
                18.351531982421875,
                19.007587432861328,
                19.873680114746094
              ],
            "feature_id":"PEOE_VSA4",
            "feature_index":33,
            "flat_feature_index":33,
            "has_nans":false,
            "nan_value_treatment":"AsIs"
          },
          {
            "borders":
              [
                11.549335479736328,
                22.103860855102539,
                23.311220169067383,
                43.714302062988281,
                45.249954223632813
              ],
            "feature_id":"PEOE_VSA5",
            "feature_index":34,
            "flat_feature_index":34,
            "has_nans":false,
            "nan_value_treatment":"AsIs"
          },
          {
            "borders":
              [
                2.6066925525665283,
                5.6398763656616211,
                9.0733833312988281,
                11.308269500732422,
                11.468862533569336,
                11.695852279663086,
                11.874342918395996,
                12.915874481201172,
                13.167331695556641,
                13.596015930175781,
                14.88870906829834,
                16.474040985107422,
                18.539115905761719,
                19.159467697143555,
                19.662384033203125,
                23.416172027587891,
                23.628721237182617,
                25.728752136230469,
                29.667964935302734,
                29.814479827880859,
                29.859630584716797,
                29.925662994384766,
                30.119770050048828,
                30.305192947387695,
                31.217971801757813,
                31.953231811523438,
                32.077285766601563,
                34.599754333496094,
                35.516384124755859,
                36.132305145263672,
                36.836540222167969,
                37.753700256347656,
                41.566753387451172,
                42.098548889160156,
                43.154365539550781,
                45.806449890136719,
                48.151298522949219,
                49.816993713378906,
                52.73602294921875,
                53.614189147949219,
                60.026924133300781,
                87.430526733398438
              ],
            "feature_id":"PEOE_VSA6",
            "feature_index":35,
            "flat_feature_index":35,
            "has_nans":false,
            "nan_value_treatment":"AsIs"
          },
          {
            "borders":
              [
                2.7817256450653076,
                8.7563991546630859,
                12.561419486999512,
                17.607572555541992,
                17.799182891845703,
                18.129695892333984,
                18.376327514648438,
                18.656553268432617,
                19.221435546875,
                19.839611053466797,
                23.31781005859375,
                23.809947967529297,
                24.294235229492188,
                24.900146484375,
                25.048606872558594,
                25.151603698730469,
                25.881450653076172,
                26.157436370849609,
                26.384368896484375,
                27.993274688720703,
                28.359958648681641,
                28.806196212768555,
                29.071464538574219,
                29.384178161621094,
                29.591846466064453,
                29.759515762329102,
                30.188201904296875,
                30.426536560058594,
                30.612060546875,
                30.691116333007813,
                30.966514587402344,
                31.181768417358398,
                32.652488708496094,
                34.426322937011719,
                35.049217224121094,
                35.450546264648438,
                35.790615081787109,
                35.887088775634766,
                35.900115966796875,
                35.985649108886719,
                36.683254241943359,
                37.293014526367188,
                37.521358489990234,
                38.014183044433594,
                38.304550170898438,
                40.12884521484375,
                40.808757781982422,
                42.064651489257813,
                42.410907745361328,
                42.498161315917969,
                42.895374298095703,
                43.453704833984375,
                43.86810302734375,
                43.903327941894531,
                44.059616088867188,
                47.349334716796875,
                48.559703826904297,
                49.017154693603516,
                49.483863830566406,
                49.771526336669922,
                54.2730712890625,
                54.719871520996094,
                55.471176147460938,
                58.031021118164063,
                73.002395629882813,
                101.55853271484375
              ],
            "feature_id":"PEOE_VSA7",
            "feature_index":36,
            "flat_feature_index":36,
            "has_nans":false,
            "nan_value_treatment":"AsIs"
          },
          {
            "borders":
              [
                5.4717569351196289,
                5.6254186630249023,
                6.0541038513183594,
                6.3708000183105469,
                6.7342467308044434,
                10.463761329650879,
                10.899844169616699,
                10.94659423828125,
                11.100446701049805,
                11.63282585144043,
                11.810052871704102,
                12.120471000671387,
                12.235413551330566,
                12.440437316894531,
                12.73832893371582,
                15.399019241333008,
                15.999094009399414,
                16.28131103515625,
                16.463294982910156,
                16.486671447753906,
                17.354764938354492,
                17.568851470947266,
                17.769454956054688,
                17.870332717895508,
                18.023994445800781,
                18.247844696044922,
                18.411901473999023,
                20.086872100830078,
                20.850482940673828,
                21.203220367431641,
                21.509304046630859,
                21.623931884765625,
                21.740612030029297,
                22.050121307373047,
                22.419914245605469,
                22.604791641235352,
                22.739433288574219,
                22.925910949707031,
                23.169408798217773,
                23.418439865112305,
                23.587318420410156,
                23.725763320922852,
                23.750289916992188,
                23.802303314208984,
                24.337900161743164,
                24.493324279785156,
                25.121877670288086,
                27.987545013427734,
                29.346805572509766,
                29.701900482177734,
                30.399379730224609,
                33.415046691894531,
                34.048835754394531,
                34.904762268066406,
                35.054222106933594,
                36.038681030273438,
                36.447135925292969,
                36.750541687011719,
                37.281562805175781,
                40.061195373535156,
                42.094123840332031,
                42.795692443847656,
                44.856399536132813,
                45.773666381835938,
                46.683792114257813,
                47.616214752197266,
                49.656326293945313,
                52.880638122558594,
                60.593109130859375
              ],
            "feature_id":"PEOE_VSA8",
            "feature_index":37,
            "flat_feature_index":37,
            "has_nans":false,
            "nan_value_treatment":"AsIs"
          },
          {
            "borders":
              [
                2.301598072052002,
                4.7493400573730469,
                5.2044286727905273,
                5.5682778358459473,
                6.2620820999145508,
                6.3740711212158203,
                8.0928564071655273,
                10.538631439208984,
                11.263761520385742,
                11.393463134765625,
                11.487142562866211,
                11.63749885559082,
                11.887500762939453,
                12.067998886108398,
                12.131614685058594,
                12.188974380493164,
                12.334985733032227,
                12.617660522460938,
                13.81226921081543,
                16.770809173583984,
                17.900108337402344,
                18.166574478149414,
                18.331539154052734,
                18.449615478515625,
                18.504348754882813,
                19.808229446411133,
                22.405513763427734,
                23.281406402587891,
                23.342212677001953,
                23.526805877685547,
                24.105829238891602,
                24.286491394042969,
                24.415399551391602,
                24.548484802246094,
                24.963466644287109,
                25.090831756591797,
                25.716169357299805,
                26.166839599609375,
                28.349308013916016,
                29.065267562866211,
                29.374595642089844,
                30.10736083984375,
                30.937774658203125,
                35.979408264160156,
                37.200477600097656,
                42.242446899414063,
                42.720752716064453
              ],
            "feature_id":"PEOE_VSA9",
            "feature_index":38,
            "flat_feature_index":38,
            "has_nans":false,
            "nan_value_treatment":"AsIs"
          },
          {
            "borders":
              [
                4.403782844543457,
                4.8589239120483398,
                5.0149192810058594,
                8.5993137359619141,
                9.1983203887939453,
                9.6749868392944336,
                10.12144660949707,
                13.162952423095703,
                13.191789627075195,
                14.347463607788086,
                14.717126846313477,
                19.124771118164063,
                19.41523551940918,
                22.457908630371094,
                63.526874542236328
              ],
            "feature_id":"SMR_VSA1",
            "feature_index":39,
            "flat_feature_index":39,
            "has_nans":false,
            "nan_value_treatment":"AsIs"
          },
          {
            "borders":
              [
                17.339155197143555,
                17.454006195068359,
                17.852725982666016,
                22.06788444519043,
                22.518070220947266,
                22.648548126220703,
                22.723670959472656,
                28.041566848754883,
                28.167961120605469,
                28.197931289672852,
                28.466636657714844,
                28.596885681152344,
                28.627883911132813,
                28.875785827636719,
                32.635356903076172,
                32.902114868164063,
                33.935150146484375,
                34.100101470947266,
                38.660438537597656,
                39.2021484375,
                39.361003875732422,
                40.019733428955078,
                48.721248626708984,
                49.838577270507813,
                51.417304992675781,
                51.546115875244141,
                61.737800598144531,
                75.18035888671875
              ],
            "feature_id":"SMR_VSA10",
            "feature_index":40,
            "flat_feature_index":40,
            "has_nans":false,
            "nan_value_treatment":"AsIs"
          },
          {
            "borders":
              [
                2.3897891044616699,
                5.3355875015258789
              ],
            "feature_id":"SMR_VSA2",
            "feature_index":41,
            "flat_feature_index":41,
            "has_nans":false,
            "nan_value_treatment":"AsIs"
          },
          {
            "borders":
              [
                2.2835497856140137,
                4.7335042953491211,
                4.9419441223144531,
                5.1503839492797852,
                7.3029913902282715,
                9.420135498046875,
                9.9259223937988281,
                10.258732795715332,
                14.685222625732422,
                14.825832366943359,
                15.351713180541992,
                19.425298690795898,
                19.63287353515625,
                20.350959777832031,
                25.504142761230469,
                30.816963195800781
              ],
            "feature_id":"SMR_VSA3",
            "feature_index":42,
            "flat_feature_index":42,
            "has_nans":false,
            "nan_value_treatment":"AsIs"
          },
          {
            "borders":
              [
                2.4962024688720703,
                5.0469064712524414,
                5.1201906204223633,
                5.8802881240844727,
                6.4827890396118164,
                10.437094688415527,
                10.971233367919922,
                11.49223518371582,
                11.937944412231445,
                12.410707473754883,
                12.873458862304688
              ],
            "feature_id":"SMR_VSA4",
            "feature_index":43,
            "flat_feature_index":43,
            "has_nans":false,
            "nan_value_treatment":"AsIs"
          },
          {
            "borders":
              [
                5.0911979675292969,
                6.4827890396118164,
                6.5758190155029297,
                10.955864906311035,
                15.16010856628418,
                18.027366638183594,
                19.827346801757813,
                25.431747436523438,
                26.75108528137207,
                44.313560485839844,
                50.6688232421875,
                51.109771728515625,
                51.362983703613281,
                57.780376434326172,
                64.232101440429688,
                70.4979248046875,
                75.278968811035156
              ],
            "feature_id":"SMR_VSA5",
            "feature_index":44,
            "flat_feature_index":44,
            "has_nans":false,
            "nan_value_treatment":"AsIs"
          },
          {
            "borders":
              [
                10.425138473510742,
                10.688078880310059,
                11.178125381469727,
                11.746135711669922,
                13.778646469116211,
                16.692020416259766,
                17.209396362304688,
                21.790288925170898,
                26.254177093505859,
                27.720148086547852,
                34.827445983886719,
                36.457847595214844,
                41.551475524902344,
                43.462501525878906,
                43.745025634765625,
                46.571281433105469,
                48.551746368408203,
                65.646965026855469
              ],
            "feature_id":"SMR_VSA6",
            "feature_index":45,
            "flat_feature_index":45,
            "has_nans":false,
            "nan_value_treatment":"AsIs"
          },
          {
            "borders":
              [
                22.266132354736328,
                24.852611541748047,
                30.797998428344727,
                42.1685791015625,
                46.499610900878906,
                47.351211547851563,
                47.636631011962891,
                47.962821960449219,
                48.132041931152344,
                49.183319091796875,
                49.430404663085938,
                51.084304809570313,
                51.674072265625,
                52.102134704589844,
                52.447502136230469,
                53.069606781005859,
                53.993240356445313,
                57.579193115234375,
                58.196846008300781,
                58.355369567871094,
                59.669647216796875,
                64.773681640625,
                65.079757690429688,
                65.729034423828125,
                66.795272827148438,
                67.94232177734375,
                70.055252075195313,
                73.355598449707031,
                83.645393371582031,
                93.290473937988281,
                114.08263397216797
              ],
            "feature_id":"SMR_VSA7",
            "feature_index":46,
            "flat_feature_index":46,
            "has_nans":false,
            "nan_value_treatment":"AsIs"
          },
          {
            "borders":
              [
                2.8436932563781738,
                5.7184491157531738,
                11.192140579223633,
                11.355777740478516,
                11.724117279052734,
                12.208463668823242,
                16.514617919921875,
                17.072128295898438,
                17.287567138671875,
                17.352806091308594,
                21.763217926025391,
                22.789562225341797,
                22.879322052001953,
                28.459985733032227,
                28.628833770751953,
                32.612205505371094,
                33.948543548583984,
                34.046943664550781,
                34.1121826171875,
                34.173637390136719,
                34.392860412597656,
                37.267616271972656
              ],
            "feature_id":"SMR_VSA9",
            "feature_index":47,
            "flat_feature_index":47,
            "has_nans":false,
            "nan_value_treatment":"AsIs"
          },
          {
            "borders":
              [
                5.4940290451049805,
                5.6576652526855469,
                10.109652519226074,
                10.552053451538086,
                10.688078880310059,
                10.866818428039551,
                11.104957580566406,
                15.026435852050781,
                16.684688568115234,
                23.137641906738281
              ],
            "feature_id":"SlogP_VSA1",
            "feature_index":48,
            "flat_feature_index":48,
            "has_nans":false,
            "nan_value_treatment":"AsIs"
          },
          {
            "borders":
              [
                9.6587963104248047,
                10.143039703369141,
                11.700963973999023,
                11.831439971923828,
                13.884969711303711,
                16.702045440673828,
                17.388351440429688,
                17.518825531005859,
                17.649303436279297,
                20.858711242675781,
                22.117649078369141,
                26.409275054931641
              ],
            "feature_id":"SlogP_VSA10",
            "feature_index":49,
            "flat_feature_index":49,
            "has_nans":false,
            "nan_value_treatment":"AsIs"
          },
          {
            "borders":
              [
                5.8147497177124023,
                14.439018249511719,
                17.313774108886719,
                20.188529968261719,
                25.872802734375
              ],
            "feature_id":"SlogP_VSA11",
            "feature_index":50,
            "flat_feature_index":50,
            "has_nans":false,
            "nan_value_treatment":"AsIs"
          },
          {
            "borders":
              [
                11.566713333129883,
                14.279366493225098,
                22.632221221923828,
                32.935123443603516,
                35.361053466796875,
                38.987262725830078,
                46.352157592773438,
                69.450828552246094
              ],
            "feature_id":"SlogP_VSA12",
            "feature_index":51,
            "flat_feature_index":51,
            "has_nans":false,
            "nan_value_treatment":"AsIs"
          },
          {
            "borders":
              [
                10.829191207885742,
                10.953125,
                13.961240768432617,
                15.013210296630859,
                15.189188003540039,
                15.782835006713867,
                15.998378753662109,
                16.051807403564453,
                16.209178924560547,
                16.72760009765625,
                16.980602264404297,
                17.348320007324219,
                24.986660003662109,
                26.541749954223633,
                27.505651473999023,
                28.83502197265625,
                29.430599212646484,
                30.640548706054688,
                33.400882720947266,
                34.606857299804688,
                37.026500701904297,
                37.412429809570313,
                37.603370666503906,
                38.334270477294922,
                44.408226013183594,
                47.305027008056641,
                49.338050842285156,
                50.587696075439453,
                54.448463439941406,
                55.8487548828125,
                72.429046630859375
              ],
            "feature_id":"SlogP_VSA2",
            "feature_index":52,
            "flat_feature_index":52,
            "has_nans":false,
            "nan_value_treatment":"AsIs"
          },
          {
            "borders":
              [
                5.1262893676757813,
                6.5758190155029297,
                11.035423278808594,
                11.236885070800781,
                11.270014762878418,
                11.310456275939941,
                13.530460357666016,
                16.014188766479492,
                17.793245315551758,
                17.855213165283203,
                22.308456420898438,
                26.361652374267578
              ],
            "feature_id":"SlogP_VSA3",
            "feature_index":53,
            "flat_feature_index":53,
            "has_nans":false,
            "nan_value_treatment":"AsIs"
          },
          {
            "borders":
              [
                1.7850911617279053,
                5.057159423828125,
                5.3082685470581055,
                5.6132521629333496,
                5.8675632476806641,
                6.4357171058654785,
                11.833307266235352,
                28.678440093994141
              ],
            "feature_id":"SlogP_VSA4",
            "feature_index":54,
            "flat_feature_index":54,
            "has_nans":false,
            "nan_value_treatment":"AsIs"
          },
          {
            "borders":
              [
                5.2855377197265625,
                6.6722793579101563,
                8.6408624649047852,
                11.322617530822754,
                12.23573112487793,
                14.541305541992188,
                15.986678123474121,
                17.994895935058594,
                24.844404220581055,
                29.866466522216797,
                30.77752685546875,
                32.761711120605469,
                35.143379211425781,
                37.009101867675781,
                39.180862426757813,
                41.158332824707031,
                41.276790618896484,
                45.977214813232422,
                46.854434967041016,
                47.071640014648438,
                50.994270324707031,
                53.708587646484375,
                59.318439483642578,
                61.080001831054688,
                65.534416198730469
              ],
            "feature_id":"SlogP_VSA5",
            "feature_index":55,
            "flat_feature_index":55,
            "has_nans":false,
            "nan_value_treatment":"AsIs"
          },
          {
            "borders":
              [
                2.5782182216644287,
                24.852611541748047,
                24.983089447021484,
                35.600086212158203,
                36.46343994140625,
                36.593917846679688,
                37.681449890136719,
                39.7322998046875,
                40.232421875,
                40.936161041259766,
                41.066635131835938,
                41.467056274414063,
                42.534637451171875,
                45.997257232666016,
                47.473751068115234,
                47.631229400634766,
                48.987602233886719,
                49.917160034179688,
                51.587120056152344,
                51.741497039794922,
                54.106712341308594,
                59.275676727294922,
                60.989860534667969,
                66.94989013671875,
                70.8837890625,
                70.94903564453125,
                76.017669677734375
              ],
            "feature_id":"SlogP_VSA6",
            "feature_index":56,
            "flat_feature_index":56,
            "has_nans":false,
            "nan_value_treatment":"AsIs"
          },
          {
            "borders":
              [
                10.110504150390625,
                12.621821403503418,
                17.644454956054688
              ],
            "feature_id":"SlogP_VSA7",
            "feature_index":57,
            "flat_feature_index":57,
            "has_nans":false,
            "nan_value_treatment":"AsIs"
          },
          {
            "borders":
              [
                5.6101408004760742,
                10.636313438415527,
                10.968162536621094,
                11.08015251159668,
                16.06922721862793,
                17.006988525390625,
                21.770401000976563,
                22.199846267700195,
                22.948497772216797,
                27.350751876831055,
                27.473133087158203,
                28.087141036987305,
                32.338539123535156,
                32.720077514648438,
                32.843368530273438,
                39.011436462402344,
                41.375473022460938
              ],
            "feature_id":"SlogP_VSA8",
            "feature_index":58,
            "flat_feature_index":58,
            "has_nans":false,
            "nan_value_treatment":"AsIs"
          },
          {
            "borders":
              [
                29.435001373291016,
                35.064998626708984,
                38.665000915527344,
                57.949996948242188,
                58.974998474121094,
                61.879997253417969,
                63.205001831054688,
                66.539993286132813,
                67.470001220703125,
                67.800003051757813,
                70.365005493164063,
                72.089996337890625,
                72.175003051757813,
                73.725006103515625,
                78.910003662109375,
                80.044998168945313,
                80.854995727539063,
                82.099998474121094,
                82.574996948242188,
                83.735000610351563,
                88.830001831054688,
                89.044998168945313,
                90.125,
                97.93499755859375,
                100.70500183105469,
                100.81500244140625,
                105.36000061035156,
                113.79000091552734,
                129.02999877929688
              ],
            "feature_id":"TPSA",
            "feature_index":59,
            "flat_feature_index":59,
            "has_nans":false,
            "nan_value_treatment":"AsIs"
          },
          {
            "borders":
              [
                2.4616556167602539,
                5.1691508293151855,
                5.6133184432983398,
                5.8622002601623535,
                5.9125432968139648,
                5.943605899810791,
                11.389383316040039,
                11.816292762756348,
                11.958711624145508,
                12.518786430358887,
                19.287818908691406,
                22.021575927734375,
                23.659782409667969,
                26.124252319335938,
                28.728893280029297
              ],
            "feature_id":"EState_VSA1",
            "feature_index":60,
            "flat_feature_index":60,
            "has_nans":false,
            "nan_value_treatment":"AsIs"
          },
          {
            "borders":
              [
                4.5924758911132813,
                4.9505319595336914,
                9.7450695037841797,
                13.802268981933594,
                14.337545394897461,
                14.6495361328125,
                18.142322540283203,
                19.706695556640625,
                21.242053985595703,
                22.916313171386719
              ],
            "feature_id":"EState_VSA10",
            "feature_index":61,
            "flat_feature_index":61,
            "has_nans":false,
            "nan_value_treatment":"AsIs"
          },
          {
            "borders":
              [
                2.1952075958251953
              ],
            "feature_id":"EState_VSA11",
            "feature_index":62,
            "flat_feature_index":62,
            "has_nans":false,
            "nan_value_treatment":"AsIs"
          },
          {
            "borders":
              [
                5.9277596473693848,
                5.9897270202636719,
                11.323799133300781,
                11.602663040161133,
                11.694137573242188,
                11.789267539978027,
                11.819723129272461,
                11.861126899719238,
                11.954383850097656,
                12.124916076660156,
                12.389968872070313,
                12.705485343933105,
                16.921512603759766,
                17.309680938720703,
                17.512237548828125,
                17.565494537353516,
                17.773670196533203,
                17.996223449707031,
                18.6075439453125,
                18.716262817382813,
                21.993778228759766,
                23.701412200927734,
                24.008613586425781,
                24.115386962890625,
                29.340808868408203,
                29.713710784912109,
                65.012580871582031
              ],
            "feature_id":"EState_VSA2",
            "feature_index":63,
            "flat_feature_index":63,
            "has_nans":false,
            "nan_value_treatment":"AsIs"
          },
          {
            "borders":
              [
                5.7890548706054688,
                5.8211336135864258,
                5.8989472389221191,
                10.832990646362305,
                11.230732917785645,
                11.318330764770508,
                11.384584426879883,
                11.536312103271484,
                11.65929126739502,
                11.912996292114258,
                12.204509735107422,
                12.350673675537109,
                16.646747589111328,
                17.453411102294922,
                17.773326873779297,
                21.037666320800781,
                21.765745162963867,
                22.091794967651367,
                22.194202423095703,
                22.669170379638672,
                22.947597503662109,
                23.315990447998047,
                23.565719604492188,
                27.209457397460938,
                27.81224250793457,
                28.394754409790039,
                28.528041839599609,
                28.620737075805664,
                32.277305603027344,
                32.834877014160156,
                34.438377380371094,
                35.5029296875,
                39.150619506835938,
                40.280704498291016,
                41.090171813964844,
                52.396980285644531,
                60.168991088867188
              ],
            "feature_id":"EState_VSA3",
            "feature_index":64,
            "flat_feature_index":64,
            "has_nans":false,
            "nan_value_treatment":"AsIs"
          },
          {
            "borders":
              [
                5.5400762557983398,
                5.5682778358459473,
                5.6101408004760742,
                5.6672821044921875,
                5.6906571388244629,
                10.63304328918457,
                11.230732917785645,
                11.285171508789063,
                11.338945388793945,
                12.091374397277832,
                15.980674743652344,
                16.794185638427734,
                16.817560195922852,
                17.68719482421875,
                21.380504608154297,
                21.520751953125,
                21.8759765625,
                22.157033920288086,
                22.973592758178711,
                23.24737548828125,
                25.830821990966797,
                26.32288932800293,
                26.600803375244141,
                27.984708786010742,
                29.003141403198242,
                29.160392761230469,
                32.716804504394531,
                33.349174499511719,
                34.598960876464844,
                36.074203491210938,
                37.126567840576172,
                37.821891784667969,
                39.963905334472656,
                43.454292297363281,
                53.643951416015625,
                55.236923217773438,
                67.010269165039063
              ],
            "feature_id":"EState_VSA4",
            "feature_index":65,
            "flat_feature_index":65,
            "has_nans":false,
            "nan_value_treatment":"AsIs"
          },
          {
            "borders":
              [
                2.4477417469024658,
                4.8976964950561523,
                5.1430668830871582,
                6.1316051483154297,
                6.2952413558959961,
                6.6255283355712891,
                11.421246528625488,
                11.978190422058105,
                12.328449249267578,
                12.636152267456055,
                15.039996147155762,
                15.379351615905762,
                17.407978057861328,
                17.619735717773438,
                18.668956756591797,
                22.488317489624023,
                22.805099487304688,
                23.534759521484375,
                23.891513824462891,
                24.082353591918945,
                24.221948623657227,
                26.666036605834961,
                27.058704376220703,
                29.150730133056641,
                31.964862823486328,
                61.586097717285156,
                66.8026123046875
              ],
            "feature_id":"EState_VSA5",
            "feature_index":66,
            "flat_feature_index":66,
            "has_nans":false,
            "nan_value_treatment":"AsIs"
          },
          {
            "borders":
              [
                2.2003471851348877,
                4.5412487983703613,
                5.1399860382080078,
                5.7232151031494141,
                6.0711936950683594,
                6.1364316940307617,
                6.7185587882995605,
                10.654890060424805,
                10.754147529602051,
                11.216770172119141,
                11.677335739135742,
                11.947309494018555,
                12.197972297668457,
                12.328449249267578,
                13.149929046630859,
                13.278849601745605,
                16.543060302734375,
                17.127191543579102,
                17.457973480224609,
                17.542507171630859,
                18.087284088134766,
                18.2691650390625,
                18.394817352294922,
                18.780139923095703,
                19.345216751098633,
                19.470577239990234,
                19.568721771240234,
                20.173080444335938,
                20.323410034179688,
                23.098840713500977,
                23.524341583251953,
                23.864261627197266,
                24.270294189453125,
                24.464908599853516,
                24.852611541748047,
                25.189632415771484,
                25.504611968994141,
                29.577964782714844,
                29.726417541503906,
                30.547843933105469,
                30.984218597412109,
                31.563484191894531,
                35.722312927246094,
                39.326126098632813,
                41.356346130371094,
                41.797561645507813,
                42.704471588134766,
                43.481765747070313,
                43.703712463378906,
                53.856178283691406,
                53.930294036865234,
                59.63421630859375,
                66.679183959960938,
                79.311767578125,
                80.890472412109375
              ],
            "feature_id":"EState_VSA6",
            "feature_index":67,
            "flat_feature_index":67,
            "has_nans":false,
            "nan_value_treatment":"AsIs"
          },
          {
            "borders":
              [
                4.7335042953491211,
                5.7460794448852539,
                11.031515121459961,
                11.447856903076172,
                11.470060348510742,
                12.040157318115234,
                12.656120300292969,
                19.547122955322266,
                22.678535461425781,
                23.339088439941406,
                24.129077911376953,
                24.330707550048828,
                29.75190544128418,
                30.307767868041992,
                30.504810333251953,
                31.19403076171875,
                31.256000518798828,
                31.316410064697266,
                35.264667510986328,
                35.611854553222656,
                35.734100341796875,
                35.795692443847656,
                36.243659973144531,
                36.46343994140625,
                36.701652526855469,
                37.022602081298828,
                37.260398864746094,
                37.471580505371094,
                38.198474884033203,
                41.800468444824219,
                41.916561126708984,
                42.310028076171875,
                42.529808044433594,
                42.702781677246094,
                43.291332244873047,
                43.537948608398438,
                46.791999816894531,
                47.271903991699219,
                47.429718017578125,
                48.681709289550781,
                57.052085876464844,
                66.630416870117188,
                70.406204223632813,
                72.801231384277344
              ],
            "feature_id":"EState_VSA7",
            "feature_index":68,
            "flat_feature_index":68,
            "has_nans":false,
            "nan_value_treatment":"AsIs"
          },
          {
            "borders":
              [
                5.1503839492797852,
                10.304980278015137,
                10.471330642700195,
                11.645435333251953,
                14.987399101257324,
                15.099367141723633,
                15.261558532714844,
                15.45680046081543,
                15.621768951416016,
                16.035751342773438,
                16.294166564941406,
                20.507797241210938,
                20.773590087890625,
                21.3525390625,
                22.519336700439453,
                25.186897277832031,
                25.631160736083984,
                26.189220428466797,
                26.954341888427734,
                27.888454437255859,
                29.302082061767578,
                31.144737243652344,
                31.633365631103516,
                35.224937438964844,
                35.488540649414063,
                39.058143615722656,
                44.398319244384766,
                57.17059326171875,
                63.313453674316406,
                72.45880126953125
              ],
            "feature_id":"EState_VSA8",
            "feature_index":69,
            "flat_feature_index":69,
            "has_nans":false,
            "nan_value_treatment":"AsIs"
          },
          {
            "borders":
              [
                4.629979133605957,
                4.7872257232666016,
                5.0455436706542969,
                5.1227502822875977,
                5.7881689071655273,
                9.6186408996582031,
                10.074787139892578,
                10.594087600708008,
                11.054704666137695,
                14.720218658447266,
                14.859174728393555,
                16.388164520263672,
                16.511722564697266,
                16.703544616699219,
                16.723690032958984,
                16.801372528076172,
                18.195529937744141,
                22.020414352416992,
                22.876008987426758,
                23.510345458984375,
                24.249965667724609,
                24.763891220092773,
                26.074613571166992,
                27.460796356201172,
                28.386089324951172,
                37.353523254394531,
                43.15399169921875,
                48.954463958740234
              ],
            "feature_id":"EState_VSA9",
            "feature_index":70,
            "flat_feature_index":70,
            "has_nans":false,
            "nan_value_treatment":"AsIs"
          },
          {
            "borders":
              [
                0.039983224123716354,
                0.64200395345687866,
                0.83958923816680908,
                0.87612330913543701,
                0.9749528169631958,
                0.9907066822052002,
                1.0156877040863037,
                1.052604079246521,
                1.3655142784118652,
                1.3742630481719971,
                1.3870378732681274,
                1.4047830104827881,
                1.5139060020446777,
                1.5364108085632324,
                1.5672159194946289,
                1.6835713386535645,
                1.7359600067138672,
                1.7767709493637085,
                1.8098764419555664,
                1.8246495723724365,
                1.9573109149932861,
                1.9751540422439575,
                2.0006735324859619,
                2.009282112121582,
                2.0296390056610107,
                2.091637134552002,
                2.7527275085449219,
                5.4066066741943359,
                5.4553651809692383,
                6.9105620384216309,
                10.581836700439453,
                13.222036361694336,
                13.694364547729492,
                30.150184631347656,
                40.388679504394531
              ],
            "feature_id":"VSA_EState1",
            "feature_index":71,
            "flat_feature_index":71,
            "has_nans":false,
            "nan_value_treatment":"AsIs"
          },
          {
            "borders":
              [
                1.0796374082565308,
                1.2072796821594238,
                1.2168829441070557,
                1.4365228414535522,
                1.4439690113067627,
                1.5227513313293457,
                2.1960711479187012,
                2.2100176811218262,
                2.6448745727539063,
                2.8294715881347656,
                3.4132752418518066,
                3.4689140319824219,
                5.8570656776428223,
                5.915675163269043,
                5.9764738082885742,
                6.0063114166259766,
                6.1108236312866211,
                7.1360282897949219,
                8.0845069885253906,
                8.1913337707519531,
                8.2223968505859375,
                8.3330917358398438,
                8.6554098129272461,
                11.987923622131348,
                12.095197677612305,
                13.759538650512695,
                14.334705352783203
              ],
            "feature_id":"VSA_EState10",
            "feature_index":72,
            "flat_feature_index":72,
            "has_nans":false,
            "nan_value_treatment":"AsIs"
          },
          {
            "borders":
              [
                4.3571004867553711,
                4.7992844581604004,
                7.5435690879821777,
                7.6337594985961914,
                13.261455535888672,
                14.817480087280273,
                15.452688217163086,
                15.646175384521484,
                16.069631576538086,
                17.336856842041016,
                17.494770050048828,
                17.719362258911133,
                17.884548187255859,
                20.625904083251953,
                21.227994918823242,
                21.730413436889648,
                22.278728485107422,
                22.461036682128906,
                23.171585083007813,
                27.270994186401367,
                27.86152458190918,
                30.278177261352539,
                31.205032348632813,
                33.391212463378906,
                34.242790222167969,
                34.993614196777344,
                39.6328125,
                41.324054718017578,
                51.258068084716797,
                53.121540069580078
              ],
            "feature_id":"VSA_EState2",
            "feature_index":73,
            "flat_feature_index":73,
            "has_nans":false,
            "nan_value_treatment":"AsIs"
          },
          {
            "borders":
              [
                1.067980170249939,
                1.1102867126464844,
                1.1519442796707153,
                2.0468425750732422,
                2.7589693069458008,
                3.073155403137207,
                3.1475546360015869,
                3.7025730609893799,
                3.8375434875488281,
                4.059208869934082,
                4.1609716415405273,
                4.4064998626708984,
                5.3461446762084961,
                5.676048755645752,
                5.7135324478149414,
                5.8320655822753906,
                5.9256715774536133,
                6.3227248191833496,
                7.3497390747070313,
                8.3246364593505859,
                9.7301054000854492,
                10.279067993164063,
                10.60713005065918,
                11.521743774414063,
                12.889381408691406,
                12.946581840515137,
                13.027429580688477,
                13.578727722167969,
                15.022254943847656,
                15.141851425170898,
                15.263036727905273,
                15.382186889648438,
                15.683010101318359,
                16.492473602294922,
                16.783138275146484,
                17.843133926391602,
                19.516067504882813,
                22.126071929931641,
                22.243293762207031,
                26.812686920166016,
                27.229177474975586,
                28.466203689575195,
                31.132900238037109,
                46.244132995605469
              ],
            "feature_id":"VSA_EState3",
            "feature_index":74,
            "flat_feature_index":74,
            "has_nans":false,
            "nan_value_treatment":"AsIs"
          },
          {
            "borders":
              [
                0.48462724685668945,
                0.92659264802932739,
                0.9651104211807251,
                1.0297874212265015,
                1.3032112121582031,
                1.3781691789627075,
                1.481501579284668,
                1.5514523983001709,
                1.7910557985305786,
                1.9062199592590332,
                2.0862164497375488,
                2.3057928085327148,
                2.3174266815185547,
                2.3328430652618408,
                2.4206786155700684,
                2.5787820816040039,
                2.737574577331543,
                2.8469562530517578,
                2.9027814865112305,
                2.9841785430908203,
                3.0363321304321289,
                3.0649046897888184,
                3.0821161270141602,
                3.3726825714111328,
                3.4599523544311523,
                3.8091135025024414,
                3.8959546089172363,
                4.0606746673583984,
                4.4357175827026367,
                4.5287361145019531,
                4.7767496109008789,
                5.1362342834472656,
                5.2207913398742676,
                5.6612787246704102,
                5.8038215637207031,
                6.138145923614502,
                6.2925643920898438,
                6.8519382476806641,
                7.4126443862915039,
                7.5690550804138184,
                7.7119989395141602,
                8.0561904907226563,
                8.2599077224731445,
                8.4195022583007813,
                8.6818790435791016,
                8.8088474273681641,
                9.2533302307128906,
                9.3981132507324219,
                11.51573371887207
              ],
            "feature_id":"VSA_EState4",
            "feature_index":75,
            "flat_feature_index":75,
            "has_nans":false,
            "nan_value_treatment":"AsIs"
          },
          {
            "borders":
              [
                -0.88887465000152588,
                -0.67775958776473999,
                -0.52465927600860596,
                -0.48004144430160522,
                -0.33204132318496704,
                -0.16411620378494263,
                -0.088450491428375244,
                -0.045371890068054199,
                -0.016757840290665627,
                -2.0823765225941315e-05,
                0.00065715907840058208,
                0.022693775594234467,
                0.11726941168308258,
                0.20924204587936401,
                0.28036525845527649,
                0.34761303663253784,
                0.43938392400741577,
                0.44818606972694397,
                0.47548419237136841,
                0.50360667705535889,
                0.54077017307281494,
                0.55630087852478027,
                0.60816538333892822,
                0.65165066719055176,
                1.0634416341781616,
                1.0837094783782959,
                1.1625552177429199,
                1.2950456142425537,
                1.317695140838623,
                1.370617151260376,
                1.4246243238449097,
                1.917635440826416,
                2.0538520812988281,
                2.9218072891235352,
                4.2936887741088867,
                5.7609772682189941,
                6.0635371208190918,
                6.2941746711730957
              ],
            "feature_id":"VSA_EState5",
            "feature_index":76,
            "flat_feature_index":76,
            "has_nans":false,
            "nan_value_treatment":"AsIs"
          },
          {
            "borders":
              [
                5.1604461669921875,
                5.2505388259887695,
                5.3520112037658691,
                5.3823652267456055,
                5.5658082962036133,
                5.7023916244506836,
                6.355499267578125,
                7.4322209358215332,
                7.8066005706787109,
                7.8766117095947266,
                7.9646816253662109,
                8.1352214813232422,
                8.3122568130493164,
                8.6345338821411133,
                8.6994943618774414,
                8.9262504577636719,
                9.3122358322143555,
                9.7345771789550781,
                9.7652120590209961,
                9.8472175598144531,
                9.9104557037353516,
                10.022331237792969,
                10.092388153076172,
                10.261756896972656,
                10.584707260131836,
                10.989147186279297,
                11.140824317932129,
                11.319864273071289,
                11.485280990600586,
                11.728185653686523,
                11.827423095703125,
                12.031991958618164,
                12.241777420043945,
                12.423892974853516,
                12.709745407104492,
                13.114530563354492,
                13.247122764587402,
                13.554253578186035,
                13.684111595153809,
                13.934349060058594,
                14.079156875610352,
                14.370018005371094,
                14.921024322509766,
                15.019857406616211,
                15.255037307739258,
                15.397819519042969,
                17.399381637573242,
                17.708702087402344,
                18.250095367431641,
                19.212261199951172
              ],
            "feature_id":"VSA_EState6",
            "feature_index":77,
            "flat_feature_index":77,
            "has_nans":false,
            "nan_value_treatment":"AsIs"
          },
          {
            "borders":
              [
                -3.9015231132507324,
                -1.7431318759918213,
                -0.59175598621368408,
                0.1493927389383316,
                0.20433585345745087,
                0.2518913745880127,
                0.27473390102386475,
                0.31232535839080811,
                0.33092060685157776,
                0.39660230278968811,
                0.4100462794303894,
                1.6473047733306885,
                1.6718981266021729,
                1.7142782211303711,
                1.7840142250061035,
